Language model created by QuickLM on Mon Apr 22 06:57:53 EDT 2019
Copyright (c) 1996-2010 Carnegie Mellon University and Alexander I. Rudnicky

The model is in standard ARPA format, designed by Doug Paul while he was at MITRE.

The code that was used to produce this language model is available in Open Source.
Please visit http://www.speech.cs.cmu.edu/tools/ for more information

The (fixed) discount mass is 0.5. The backoffs are computed using the ratio method.
This model based on a corpus of 24 sentences and 30 words

\data\
ngram 1=30
ngram 2=52
ngram 3=56

\1-grams:
-0.9661 </s> -0.3010
-0.9661 <s> -0.2513
-2.3464 ACCELEROMETER -0.2513
-2.0453 ACTION -0.2513
-2.3464 BLACK -0.2513
-2.3464 BLUE -0.2513
-2.0453 CLEAR -0.2513
-2.3464 EVERLOOP -0.2513
-2.3464 FIVE -0.2911
-2.3464 FOUR -0.2911
-2.3464 GAME -0.2991
-2.3464 GREEN -0.2513
-2.3464 GYROSCOPE -0.2513
-2.3464 IPADDRESS -0.2513
-2.3464 MATRIC -0.2991
-0.9846 MATRIX -0.2513
-2.3464 MINUTE -0.2513
-1.6474 MINUTES -0.2513
-2.3464 ONE -0.2991
-2.3464 RED -0.2513
-1.6474 RING -0.2891
-2.3464 SECONDS -0.2513
-2.3464 SENSORS -0.2513
-2.0453 START -0.2469
-2.0453 STOP -0.2469
-2.0453 TEN -0.2891
-2.3464 THREE -0.2911
-2.3464 TIME -0.2513
-2.3464 TWO -0.2911
-2.3464 ULRAVIOLET -0.2513

\2-grams:
-1.6812 <s> MATRIC 0.0000
-0.3195 <s> MATRIX -0.0000
-0.3010 ACCELEROMETER </s> -0.3010
-0.3010 ACTION </s> -0.3010
-0.3010 BLACK </s> -0.3010
-0.3010 BLUE </s> -0.3010
-0.3010 CLEAR </s> -0.3010
-0.3010 EVERLOOP </s> -0.3010
-0.3010 FIVE MINUTES 0.0000
-0.3010 FOUR MINUTES 0.0000
-0.3010 GAME TIME 0.0000
-0.3010 GREEN </s> -0.3010
-0.3010 GYROSCOPE </s> -0.3010
-0.3010 IPADDRESS </s> -0.3010
-0.3010 MATRIC GYROSCOPE 0.0000
-1.6628 MATRIX ACCELEROMETER 0.0000
-1.6628 MATRIX CLEAR 0.0000
-1.6628 MATRIX EVERLOOP 0.0000
-1.6628 MATRIX FIVE 0.0000
-1.6628 MATRIX FOUR 0.0000
-1.6628 MATRIX GAME 0.0000
-1.6628 MATRIX IPADDRESS 0.0000
-1.6628 MATRIX ONE 0.0000
-0.9638 MATRIX RING 0.0000
-1.6628 MATRIX SENSORS 0.0000
-1.3617 MATRIX START 0.0000
-1.3617 MATRIX STOP 0.0000
-1.3617 MATRIX TEN 0.0000
-1.6628 MATRIX THREE 0.0000
-1.6628 MATRIX TWO 0.0000
-1.6628 MATRIX ULRAVIOLET 0.0000
-0.3010 MINUTE </s> -0.3010
-0.3010 MINUTES </s> -0.3010
-0.3010 ONE MINUTE 0.0000
-0.3010 RED </s> -0.3010
-1.0000 RING BLACK 0.0000
-1.0000 RING BLUE 0.0000
-1.0000 RING CLEAR 0.0000
-1.0000 RING GREEN 0.0000
-1.0000 RING RED 0.0000
-0.3010 SECONDS </s> -0.3010
-0.3010 SENSORS </s> -0.3010
-0.6021 START </s> -0.3010
-0.6021 START ACTION 0.0000
-0.6021 STOP </s> -0.3010
-0.6021 STOP ACTION 0.0000
-0.6021 TEN MINUTES 0.0000
-0.6021 TEN SECONDS 0.0000
-0.3010 THREE MINUTES 0.0000
-0.3010 TIME </s> -0.3010
-0.3010 TWO MINUTES 0.0000
-0.3010 ULRAVIOLET </s> -0.3010

\3-grams:
-0.3010 <s> MATRIC GYROSCOPE
-1.6628 <s> MATRIX ACCELEROMETER
-1.6628 <s> MATRIX CLEAR
-1.6628 <s> MATRIX EVERLOOP
-1.6628 <s> MATRIX FIVE
-1.6628 <s> MATRIX FOUR
-1.6628 <s> MATRIX GAME
-1.6628 <s> MATRIX IPADDRESS
-1.6628 <s> MATRIX ONE
-0.9638 <s> MATRIX RING
-1.6628 <s> MATRIX SENSORS
-1.3617 <s> MATRIX START
-1.3617 <s> MATRIX STOP
-1.3617 <s> MATRIX TEN
-1.6628 <s> MATRIX THREE
-1.6628 <s> MATRIX TWO
-1.6628 <s> MATRIX ULRAVIOLET
-0.3010 FIVE MINUTES </s>
-0.3010 FOUR MINUTES </s>
-0.3010 GAME TIME </s>
-0.3010 MATRIC GYROSCOPE </s>
-0.3010 MATRIX ACCELEROMETER </s>
-0.3010 MATRIX CLEAR </s>
-0.3010 MATRIX EVERLOOP </s>
-0.3010 MATRIX FIVE MINUTES
-0.3010 MATRIX FOUR MINUTES
-0.3010 MATRIX GAME TIME
-0.3010 MATRIX IPADDRESS </s>
-0.3010 MATRIX ONE MINUTE
-1.0000 MATRIX RING BLACK
-1.0000 MATRIX RING BLUE
-1.0000 MATRIX RING CLEAR
-1.0000 MATRIX RING GREEN
-1.0000 MATRIX RING RED
-0.3010 MATRIX SENSORS </s>
-0.6021 MATRIX START </s>
-0.6021 MATRIX START ACTION
-0.6021 MATRIX STOP </s>
-0.6021 MATRIX STOP ACTION
-0.6021 MATRIX TEN MINUTES
-0.6021 MATRIX TEN SECONDS
-0.3010 MATRIX THREE MINUTES
-0.3010 MATRIX TWO MINUTES
-0.3010 MATRIX ULRAVIOLET </s>
-0.3010 ONE MINUTE </s>
-0.3010 RING BLACK </s>
-0.3010 RING BLUE </s>
-0.3010 RING CLEAR </s>
-0.3010 RING GREEN </s>
-0.3010 RING RED </s>
-0.3010 START ACTION </s>
-0.3010 STOP ACTION </s>
-0.3010 TEN MINUTES </s>
-0.3010 TEN SECONDS </s>
-0.3010 THREE MINUTES </s>
-0.3010 TWO MINUTES </s>

\end\
